<?xml version="1.0"?>
<opencv_storage>
<cascade>
  <stageType>BOOST</stageType>
  <featureType>LBP</featureType>
  <height>25</height>
  <width>50</width>
  <stageParams>
    <boostType>GAB</boostType>
    <minHitRate>9.9900001287460327e-001</minHitRate>
    <maxFalseAlarm>5.0000000000000000e-001</maxFalseAlarm>
    <weightTrimRate>9.4999998807907104e-001</weightTrimRate>
    <maxDepth>1</maxDepth>
    <maxWeakCount>100</maxWeakCount></stageParams>
  <featureParams>
    <maxCatCount>256</maxCatCount>
    <featSize>1</featSize></featureParams>
  <stageNum>15</stageNum>
  <stages>
    <!-- stage 0 -->
    <_>
      <maxWeakCount>6</maxWeakCount>
      <stageThreshold>-1.5195444822311401e+000</stageThreshold>
      <weakClassifiers>
        <_>
          <internalNodes>
            0 -1 101 -35913733 -1971396206 -909913871 -1654653985
            -1311786309 -1902138977 -776220167 -536870913</internalNodes>
          <leafValues>
            -6.7620426416397095e-001 6.1751562356948853e-001</leafValues></_>
        <_>
          <internalNodes>
            0 -1 40 738861214 798507454 486672863 253231624 177745391
            -1633514849 -1432442417 -1342240626</internalNodes>
          <leafValues>
            -6.4582705497741699e-001 4.8279622197151184e-001</leafValues></_>
        <_>
          <internalNodes>
            0 -1 76 -203965718 47612015 942809298 588747418 -51383298
            -1282699134 -1464626982 -1680098305</internalNodes>
          <leafValues>
            -5.8492249250411987e-001 5.5638873577117920e-001</leafValues></_>
        <_>
          <internalNodes>
            0 -1 6 -675024158 -3714238 -744877310 -717090190 2070106595
            -117284574 1998667219 -1084813</internalNodes>
          <leafValues>
            -5.5543011426925659e-001 5.5008488893508911e-001</leafValues></_>
        <_>
          <internalNodes>
            0 -1 96 -337649406 1360067075 -1834297334 -1509174065
            -534514688 292278274 -1743175486 -942673953</internalNodes>
          <leafValues>
            -5.6237667798995972e-001 5.0620400905609131e-001</leafValues></_>
        <_>
          <internalNodes>
            0 -1 32 -135285510 -1219944316 1409286416 -204797756
            998425599 -645363574 681123994 168758794</internalNodes>
          <leafValues>
            -6.5953516960144043e-001 4.3663546442985535e-001</leafValues></_></weakClassifiers></_>
    <!-- stage 1 -->
    <_>
      <maxWeakCount>6</maxWeakCount>
      <stageThreshold>-1.4545884132385254e+000</stageThreshold>
      <weakClassifiers>
        <_>
          <internalNodes>
            0 -1 18 -547667969 -2097793 -103498241 -9260101 2144485759
            -68453068 -7640337 -9495749</internalNodes>
          <leafValues>
            -6.6180759668350220e-001 5.6338030099868774e-001</leafValues></_>
        <_>
          <internalNodes>
            0 -1 48 -774506497 -102918211 932381047 -610550705
            -523250690 -1463106172 -112219905 58346</internalNodes>
          <leafValues>
            -6.1708492040634155e-001 5.6820201873779297e-001</leafValues></_>
        <_>
          <internalNodes>
            0 -1 41 1026960908 2143651230 -1215232981 -1623352954
            -355657233 -1108854358 736673774 506247944</internalNodes>
          <leafValues>
            -6.8171781301498413e-001 4.4706287980079651e-001</leafValues></_>
        <_>
          <internalNodes>
            0 -1 12 -201621645 -552440630 908247322 2134010774 -2352771
            2064657073 -100721927 2138832895</internalNodes>
          <leafValues>
            -5.5228823423385620e-001 5.2354693412780762e-001</leafValues></_>
        <_>
          <internalNodes>
            0 -1 103 -111415025 2098200414 -255212721 1443074843
            -788553198 1175700739 -926361522 1649474379</internalNodes>
          <leafValues>
            -5.4591852426528931e-001 5.3595072031021118e-001</leafValues></_>
        <_>
          <internalNodes>
            0 -1 46 613693949 -1109953633 -1358555233 -1747706418
            781011951 -1148484971 -271900755 -1359477828</internalNodes>
          <leafValues>
            -5.5347579717636108e-001 5.1739913225173950e-001</leafValues></_></weakClassifiers></_>
    <!-- stage 2 -->
    <_>
      <maxWeakCount>8</maxWeakCount>
      <stageThreshold>-1.7341045141220093e+000</stageThreshold>
      <weakClassifiers>
        <_>
          <internalNodes>
            0 -1 111 -1074266113 719236095 -162924033 -1082156129
            -74712065 -2000700198 -1145308161 -541065217</internalNodes>
          <leafValues>
            -6.5078210830688477e-001 5.4199820756912231e-001</leafValues></_>
        <_>
          <internalNodes>
            0 -1 39 249438175 801020376 -123888161 998777100 -1948281857
            -1896172886 -643987201 -1883702609</internalNodes>
          <leafValues>
            -5.7375472784042358e-001 4.4996237754821777e-001</leafValues></_>
        <_>
          <internalNodes>
            0 -1 93 -54624776 -1462231110 -673622603 -549522465
            -1413877576 -1901165927 288989436 -1883509378</internalNodes>
          <leafValues>
            -5.4097616672515869e-001 4.6612870693206787e-001</leafValues></_>
        <_>
          <internalNodes>
            0 -1 24 1548803834 1398495454 -1794507267 -706885414
            -1433601542 -1139478897 -438579202 -229508984</internalNodes>
          <leafValues>
            -5.3639048337936401e-001 4.5327395200729370e-001</leafValues></_>
        <_>
          <internalNodes>
            0 -1 79 974205557 -581168869 -1685932747 535975831
            -212649872 1059914032 1337012991 792343515</internalNodes>
          <leafValues>
            -6.8319565057754517e-001 3.8645532727241516e-001</leafValues></_>
        <_>
          <internalNodes>
            0 -1 106 -41947325 1969225283 -1899562687 1115069791
            -153357728 1081389056 1658574149 1918362367</internalNodes>
          <leafValues>
            -6.2744599580764771e-001 3.5906592011451721e-001</leafValues></_>
        <_>
          <internalNodes>
            0 -1 27 1224637116 -136363027 -573530121 -212707632
            -23197130 -1424013246 -78955521 -9275590</internalNodes>
          <leafValues>
            -5.5631858110427856e-001 4.7400978207588196e-001</leafValues></_>
        <_>
          <internalNodes>
            0 -1 5 -151328197 -903884650 -795171628 -222663496
            -382508963 536961340 659695413 1937766391</internalNodes>
          <leafValues>
            -5.7197570800781250e-001 4.5858275890350342e-001</leafValues></_></weakClassifiers></_>
    <!-- stage 3 -->
    <_>
      <maxWeakCount>8</maxWeakCount>
      <stageThreshold>-1.4956685304641724e+000</stageThreshold>
      <weakClassifiers>
        <_>
          <internalNodes>
            0 -1 109 -1048577 -1350639205 -775700003 -280169 -1435776001
            200010963 1506529785 1610612735</internalNodes>
          <leafValues>
            -6.9808238744735718e-001 3.7438768148422241e-001</leafValues></_>
        <_>
          <internalNodes>
            0 -1 10 -621327621 -9484075 -40765219 -787285539 -259581387
            -144244141 -350787329 -8915201</internalNodes>
          <leafValues>
            -5.1446437835693359e-001 5.2110511064529419e-001</leafValues></_>
        <_>
          <internalNodes>
            0 -1 100 -1560937550 -1416739938 -1826713119 -543268385
            -1413750304 -1886391589 -1849962304 -1612972097</internalNodes>
          <leafValues>
            -5.0409203767776489e-001 4.7517946362495422e-001</leafValues></_>
        <_>
          <internalNodes>
            0 -1 95 -525821 -176173495 922672443 1886911099 -1628451072
            1180135192 -352388390 -1707081729</internalNodes>
          <leafValues>
            -4.4592413306236267e-001 5.2905869483947754e-001</leafValues></_>
        <_>
          <internalNodes>
            0 -1 54 -44310593 556805280 4456702 295297328 545585342
            404249012 1160900861 857604031</internalNodes>
          <leafValues>
            -5.5180633068084717e-001 4.2791372537612915e-001</leafValues></_>
        <_>
          <internalNodes>
            0 -1 36 -540562718 1351598244 1930662747 159604891
            -1599872886 142608786 42462891 49261087</internalNodes>
          <leafValues>
            -5.6944209337234497e-001 4.1561523079872131e-001</leafValues></_>
        <_>
          <internalNodes>
            0 -1 70 -1218506476 -600084355 -1090416195 2136103611
            -1174197968 -76914591 -615382088 -13420226</internalNodes>
          <leafValues>
            -5.3791189193725586e-001 4.3963715434074402e-001</leafValues></_>
        <_>
          <internalNodes>
            0 -1 73 -81600270 -742350598 1900761336 1247936866
            -1549308193 822270123 -426636917 1523805151</internalNodes>
          <leafValues>
            -6.0791951417922974e-001 3.7853217124938965e-001</leafValues></_></weakClassifiers></_>
    <!-- stage 4 -->
    <_>
      <maxWeakCount>8</maxWeakCount>
      <stageThreshold>-1.4379856586456299e+000</stageThreshold>
      <weakClassifiers>
        <_>
          <internalNodes>
            0 -1 89 -1 -1074003969 -167780867 -513 -16777217 -1900085505
            -33685509 -1912602625</internalNodes>
          <leafValues>
            -5.7601857185363770e-001 6.5389084815979004e-001</leafValues></_>
        <_>
          <internalNodes>
            0 -1 8 -10756485 -82297389 1929468658 992104666 -42919406
            2048928273 2115496667 1937244159</internalNodes>
          <leafValues>
            -5.6933015584945679e-001 4.4730618596076965e-001</leafValues></_>
        <_>
          <internalNodes>
            0 -1 119 -68158222 -1356679437 1333660780 -1375756804
            -1208315728 369092087 1576490192 -134220545</internalNodes>
          <leafValues>
            -4.3109098076820374e-001 5.5862635374069214e-001</leafValues></_>
        <_>
          <internalNodes>
            0 -1 2 -135533662 -1215871602 -1175806686 665826662
            1735012868 1932739842 285307972 1933836143</internalNodes>
          <leafValues>
            -6.8283319473266602e-001 3.1566151976585388e-001</leafValues></_>
        <_>
          <internalNodes>
            0 -1 97 -513809502 -1031143202 -1789332976 1476252885
            -559029853 9130675 -794562095 -1753253441</internalNodes>
          <leafValues>
            -5.0765240192413330e-001 4.6007281541824341e-001</leafValues></_>
        <_>
          <internalNodes>
            0 -1 71 -12609 1405243113 1870416439 1079132296 -1493332806
            -1212940673 1291778299 -607928065</internalNodes>
          <leafValues>
            -3.8551062345504761e-001 5.7271820306777954e-001</leafValues></_>
        <_>
          <internalNodes>
            0 -1 57 94381012 -1748753040 -1219128609 1608364473
            -1079403544 -1281883974 -1148544534 1064045004</internalNodes>
          <leafValues>
            -6.1031746864318848e-001 3.7583807110786438e-001</leafValues></_>
        <_>
          <internalNodes>
            0 -1 4 -162795889 -119080827 2097387167 1079480988
            1073836612 34062984 1968927252 1476391923</internalNodes>
          <leafValues>
            -5.7263225317001343e-001 3.6804419755935669e-001</leafValues></_></weakClassifiers></_>
    <!-- stage 5 -->
    <_>
      <maxWeakCount>7</maxWeakCount>
      <stageThreshold>-1.3791625499725342e+000</stageThreshold>
      <weakClassifiers>
        <_>
          <internalNodes>
            0 -1 86 -33555203 -1083985466 1442563165 -570443817
            -1611801089 -1410150189 227399928 536870655</internalNodes>
          <leafValues>
            -6.9804918766021729e-001 3.0880421400070190e-001</leafValues></_>
        <_>
          <internalNodes>
            0 -1 30 1973180624 -573680803 1436365021 -190231 487504120
            -1880552566 418189564 436154586</internalNodes>
          <leafValues>
            -6.8607848882675171e-001 3.0684855580329895e-001</leafValues></_>
        <_>
          <internalNodes>
            0 -1 82 1073721940 941544176 2041878717 872199831 1404612861
            -1888810293 480782524 148880050</internalNodes>
          <leafValues>
            -6.4492106437683105e-001 3.4203702211380005e-001</leafValues></_>
        <_>
          <internalNodes>
            0 -1 0 -1851229704 529576701 -922102050 1068976346
            1510712046 -1079273288 -1272976648 -1759457280</internalNodes>
          <leafValues>
            -6.5244042873382568e-001 3.6871230602264404e-001</leafValues></_>
        <_>
          <internalNodes>
            0 -1 22 -1515216886 528549126 964701759 -15888059 144290527
            -1148665366 245143758 92571832</internalNodes>
          <leafValues>
            -6.6820728778839111e-001 3.2741123437881470e-001</leafValues></_>
        <_>
          <internalNodes>
            0 -1 61 -544016137 -721385464 1080578809 -80674638
            1758062078 -1676094902 70762746 -7376693</internalNodes>
          <leafValues>
            -3.8753491640090942e-001 6.0083639621734619e-001</leafValues></_>
        <_>
          <internalNodes>
            0 -1 92 -1364164872 -1082756940 -2050361893 -245518116
            -1160857092 -1609908071 218200506 -1078060904</internalNodes>
          <leafValues>
            -5.6817752122879028e-001 3.7549221515655518e-001</leafValues></_></weakClassifiers></_>
    <!-- stage 6 -->
    <_>
      <maxWeakCount>8</maxWeakCount>
      <stageThreshold>-1.5210473537445068e+000</stageThreshold>
      <weakClassifiers>
        <_>
          <internalNodes>
            0 -1 122 -1073741825 -1361142314 -2124849091 535657174
            -1348730885 780851427 1610347519 -1</internalNodes>
          <leafValues>
            -6.4148813486099243e-001 4.3560296297073364e-001</leafValues></_>
        <_>
          <internalNodes>
            0 -1 110 -1080295937 -1141573896 -66051 -570458116
            -1354825793 -1342460688 490200569 -537141764</internalNodes>
          <leafValues>
            -4.5220750570297241e-001 5.3102988004684448e-001</leafValues></_>
        <_>
          <internalNodes>
            0 -1 53 389888281 2134781887 1870643005 -4194385 -1073795649
            -1083869315 805241896 -1355014263</internalNodes>
          <leafValues>
            -4.3537077307701111e-001 5.0879460573196411e-001</leafValues></_>
        <_>
          <internalNodes>
            0 -1 34 -962847235 -2032907810 1968560335 -1073761834
            -2036276737 -1984917262 -1888885371 -1936716320</internalNodes>
          <leafValues>
            -4.7161862254142761e-001 4.5324191451072693e-001</leafValues></_>
        <_>
          <internalNodes>
            0 -1 29 -67533886 -571605761 823209309 -5393457 -609248337
            -539362637 -358246433 5024170</internalNodes>
          <leafValues>
            -5.8713781833648682e-001 3.6263781785964966e-001</leafValues></_>
        <_>
          <internalNodes>
            0 -1 113 -94550013 -110140654 -754330147 -1587859109
            -501230780 1338900771 -1279094853 -232590593</internalNodes>
          <leafValues>
            -4.2248120903968811e-001 4.6674549579620361e-001</leafValues></_>
        <_>
          <internalNodes>
            0 -1 9 -402952398 1073708282 -47015853 1467021245 -43557039
            1548690997 2015759229 1869765371</internalNodes>
          <leafValues>
            -6.5820562839508057e-001 3.3041533827781677e-001</leafValues></_>
        <_>
          <internalNodes>
            0 -1 81 2095838732 139772480 -2053787256 1139238605
            1384364932 26477862 -907353844 -1241784713</internalNodes>
          <leafValues>
            -6.1640048027038574e-001 2.9240447282791138e-001</leafValues></_></weakClassifiers></_>
    <!-- stage 7 -->
    <_>
      <maxWeakCount>9</maxWeakCount>
      <stageThreshold>-1.3607753515243530e+000</stageThreshold>
      <weakClassifiers>
        <_>
          <internalNodes>
            0 -1 74 -33563649 -524417 -262145 -145489921 -49571 -8552619
            -16657 -8388609</internalNodes>
          <leafValues>
            -5.5864810943603516e-001 5.9164732694625854e-001</leafValues></_>
        <_>
          <internalNodes>
            0 -1 121 -109063473 -856726161 -1278754677 1660734330
            -493633529 1427342144 -135534686 1929379838</internalNodes>
          <leafValues>
            -5.5774152278900146e-001 4.1033852100372314e-001</leafValues></_>
        <_>
          <internalNodes>
            0 -1 38 553416701 804663774 1640366045 2136887196
            -2014524677 -1432624129 232274431 536549592</internalNodes>
          <leafValues>
            -5.9955281019210815e-001 3.3511796593666077e-001</leafValues></_>
        <_>
          <internalNodes>
            0 -1 105 -311775112 954123421 -1827415333 -1879511041
            -604713796 516493313 2006833309 1172305151</internalNodes>
          <leafValues>
            -6.0698056221008301e-001 3.2111048698425293e-001</leafValues></_>
        <_>
          <internalNodes>
            0 -1 52 353648085 903624404 521164605 1073485978 856431604
            -48574311 -1115117123 1056977036</internalNodes>
          <leafValues>
            -5.8970290422439575e-001 3.1969094276428223e-001</leafValues></_>
        <_>
          <internalNodes>
            0 -1 33 1465243901 1576105252 1897190809 340914229
            1440219303 400631996 335642861 1398756095</internalNodes>
          <leafValues>
            -4.8029273748397827e-001 3.9982351660728455e-001</leafValues></_>
        <_>
          <internalNodes>
            0 -1 114 -238058942 -984788669 -1321077086 1918030415
            -152431872 1380501518 -2083879725 -1841566725</internalNodes>
          <leafValues>
            -5.2459621429443359e-001 3.4842392802238464e-001</leafValues></_>
        <_>
          <internalNodes>
            0 -1 51 -775817876 1415314292 832434835 2079278644
            -942944580 -1075494660 -215287320 1570615496</internalNodes>
          <leafValues>
            -5.4257124662399292e-001 3.6864298582077026e-001</leafValues></_>
        <_>
          <internalNodes>
            0 -1 99 -1145859336 431229192 361996893 496999433
            -1297100050 -1711108680 438419961 -618947364</internalNodes>
          <leafValues>
            -4.9789020419120789e-001 4.0751761198043823e-001</leafValues></_></weakClassifiers></_>
    <!-- stage 8 -->
    <_>
      <maxWeakCount>9</maxWeakCount>
      <stageThreshold>-1.9632637500762939e+000</stageThreshold>
      <weakClassifiers>
        <_>
          <internalNodes>
            0 -1 116 -557851041 -540290217 -248006913 -536881079
            -127999509 -375660337 -733224241 -366804993</internalNodes>
          <leafValues>
            -6.2077921628952026e-001 4.1940927505493164e-001</leafValues></_>
        <_>
          <internalNodes>
            0 -1 80 972584953 -42001801 387620863 2098225115 1072332601
            -1082434950 -71000321 1060780986</internalNodes>
          <leafValues>
            -6.2984538078308105e-001 3.2480990886688232e-001</leafValues></_>
        <_>
          <internalNodes>
            0 -1 50 707271061 -1110623745 1002412383 798890819
            2078031605 -1214538797 601629693 1069288984</internalNodes>
          <leafValues>
            -6.5434384346008301e-001 2.9343348741531372e-001</leafValues></_>
        <_>
          <internalNodes>
            0 -1 16 -92281091 -75776449 -268767493 -210518017 -545292511
            -8945851 -12756293 -29379205</internalNodes>
          <leafValues>
            -3.4919640421867371e-001 5.4848557710647583e-001</leafValues></_>
        <_>
          <internalNodes>
            0 -1 62 -1039820239 -149939175 -578306569 2070942067
            -1101958913 1009149470 -630985041 1042553467</internalNodes>
          <leafValues>
            -5.3500628471374512e-001 3.6358055472373962e-001</leafValues></_>
        <_>
          <internalNodes>
            0 -1 26 -119927268 -2401705 -1067839267 1511014650
            -119125444 -615819664 1317698520 -568713537</internalNodes>
          <leafValues>
            -5.4330044984817505e-001 3.3358609676361084e-001</leafValues></_>
        <_>
          <internalNodes>
            0 -1 64 -267407286 -619938752 1079243280 -1013496795
            -1067865716 269734658 348648399 2009833883</internalNodes>
          <leafValues>
            -4.8636144399642944e-001 4.0534743666648865e-001</leafValues></_>
        <_>
          <internalNodes>
            0 -1 98 989854910 -142689094 1610241149 -34603585
            -1107319042 268152700 503205369 -8449</internalNodes>
          <leafValues>
            -4.0807345509529114e-001 4.8548993468284607e-001</leafValues></_>
        <_>
          <internalNodes>
            0 -1 23 146948310 -774596136 -260025156 1906328338
            -888443906 -1031584994 1754016702 -1691932590</internalNodes>
          <leafValues>
            -5.3235322237014771e-001 3.8981473445892334e-001</leafValues></_></weakClassifiers></_>
    <!-- stage 9 -->
    <_>
      <maxWeakCount>7</maxWeakCount>
      <stageThreshold>-1.2082685232162476e+000</stageThreshold>
      <weakClassifiers>
        <_>
          <internalNodes>
            0 -1 88 -69731845 -1075850979 2032120317 -538968289
            -340790341 -1947490934 -245632833 -1846543633</internalNodes>
          <leafValues>
            -5.9970676898956299e-001 3.9930555224418640e-001</leafValues></_>
        <_>
          <internalNodes>
            0 -1 15 -152909110 -606501178 -2096965150 -1011711966
            -1190710279 -552511444 1926446847 -159952282</internalNodes>
          <leafValues>
            -5.6918251514434814e-001 3.2778188586235046e-001</leafValues></_>
        <_>
          <internalNodes>
            0 -1 77 -261437190 -801980162 837860554 838881867 -795210579
            1343445681 855833039 -11558913</internalNodes>
          <leafValues>
            -4.6319901943206787e-001 4.2005789279937744e-001</leafValues></_>
        <_>
          <internalNodes>
            0 -1 49 885007775 533805275 -849478657 802429260 -40096772
            -1450063623 -1550771219 244842728</internalNodes>
          <leafValues>
            -5.6628125905990601e-001 3.3876746892929077e-001</leafValues></_>
        <_>
          <internalNodes>
            0 -1 1 -171254793 -42007286 764139999 -1717849649 1099346883
            -408719054 1095979511 1465348343</internalNodes>
          <leafValues>
            -4.4733229279518127e-001 4.3547141551971436e-001</leafValues></_>
        <_>
          <internalNodes>
            0 -1 91 -243283956 -145768448 1107554767 1432284755
            1990631762 -1467870023 1123529471 -213137086</internalNodes>
          <leafValues>
            -4.6910756826400757e-001 4.0164777636528015e-001</leafValues></_>
        <_>
          <internalNodes>
            0 -1 108 -1427463110 194687582 -1051242468 902609590
            -1384403742 11254158 1502463472 1375714799</internalNodes>
          <leafValues>
            -7.3027509450912476e-001 2.6709628105163574e-001</leafValues></_></weakClassifiers></_>
    <!-- stage 10 -->
    <_>
      <maxWeakCount>8</maxWeakCount>
      <stageThreshold>-1.3070391416549683e+000</stageThreshold>
      <weakClassifiers>
        <_>
          <internalNodes>
            0 -1 123 -103024641 -1342243909 -134483969 -537919489 -1
            -1883242501 -939526213 -805306369</internalNodes>
          <leafValues>
            -5.4021489620208740e-001 5.9703338146209717e-001</leafValues></_>
        <_>
          <internalNodes>
            0 -1 13 -205521281 -201753857 -1154285766 2064809599 -61839
            1869838961 -268439813 -8388609</internalNodes>
          <leafValues>
            -3.9139610528945923e-001 5.4370224475860596e-001</leafValues></_>
        <_>
          <internalNodes>
            0 -1 84 -148941217 -43068489 -1019989505 -234576371
            1384872127 -892771849 -916769218 -116866449</internalNodes>
          <leafValues>
            -4.2765578627586365e-001 4.2367291450500488e-001</leafValues></_>
        <_>
          <internalNodes>
            0 -1 42 -286884431 -2117151339 -172755979 -1077955749
            -412566797 146474937 1101615601 1174126850</internalNodes>
          <leafValues>
            -5.0664395093917847e-001 3.6149033904075623e-001</leafValues></_>
        <_>
          <internalNodes>
            0 -1 101 -277154829 -1434784294 366998013 -1889550339
            -1074283789 -1900019781 -771754501 -539502603</internalNodes>
          <leafValues>
            -3.6591142416000366e-001 4.7608873248100281e-001</leafValues></_>
        <_>
          <internalNodes>
            0 -1 59 15730288 1031617497 -1280735781 628552621 1515611127
            -1385340469 -1650315797 246942008</internalNodes>
          <leafValues>
            -7.5819545984268188e-001 2.6711058616638184e-001</leafValues></_>
        <_>
          <internalNodes>
            0 -1 83 -638060544 -609461727 419252561 -179416098
            -104662627 -1908486133 -176165884 -1726252453</internalNodes>
          <leafValues>
            -4.5205232501029968e-001 4.0878993272781372e-001</leafValues></_>
        <_>
          <internalNodes>
            0 -1 44 -1044311902 -684407937 -514092584 -1382628930
            701409755 2081237642 -83150119 -1850125990</internalNodes>
          <leafValues>
            -5.1953047513961792e-001 3.4658828377723694e-001</leafValues></_></weakClassifiers></_>
    <!-- stage 11 -->
    <_>
      <maxWeakCount>10</maxWeakCount>
      <stageThreshold>-1.3342072963714600e+000</stageThreshold>
      <weakClassifiers>
        <_>
          <internalNodes>
            0 -1 78 -75826433 -8432929 1520107423 1896897023 -87135619
            -78824937 -1618019074 -8684561</internalNodes>
          <leafValues>
            -5.9655690193176270e-001 3.4602648019790649e-001</leafValues></_>
        <_>
          <internalNodes>
            0 -1 17 -203714689 -36191437 -192750117 -135070221
            -567391939 -344825332 -1081147393 -143297937</internalNodes>
          <leafValues>
            -4.4375333189964294e-001 4.1795864701271057e-001</leafValues></_>
        <_>
          <internalNodes>
            0 -1 102 -1681577 -1413571309 -843984519 -1707567524
            -290789445 -1929472344 1508446713 234592511</internalNodes>
          <leafValues>
            -4.9259823560714722e-001 3.5192173719406128e-001</leafValues></_>
        <_>
          <internalNodes>
            0 -1 66 -2034959 -793707781 1810270185 1497388258
            -1144000838 -890569225 -5272870 -1714435093</internalNodes>
          <leafValues>
            -3.3840340375900269e-001 5.0200307369232178e-001</leafValues></_>
        <_>
          <internalNodes>
            0 -1 3 -454562265 -1145081132 -1553852457 -1231043800
            -1067040155 1352902769 1197824108 1140314199</internalNodes>
          <leafValues>
            -4.6888962388038635e-001 3.9680969715118408e-001</leafValues></_>
        <_>
          <internalNodes>
            0 -1 37 -968996354 -682468903 1426642367 463481846
            -2136862723 -1935130452 -490116357 -1921905387</internalNodes>
          <leafValues>
            -4.4651544094085693e-001 4.0110465884208679e-001</leafValues></_>
        <_>
          <internalNodes>
            0 -1 87 2130431014 -1613135143 1493565694 1135268255
            1899443316 415457418 1572520124 1576905975</internalNodes>
          <leafValues>
            -5.8202677965164185e-001 3.0913200974464417e-001</leafValues></_>
        <_>
          <internalNodes>
            0 -1 63 -77070337 1023451328 301035755 -183422349 1380902879
            -1613765718 821544187 -686619921</internalNodes>
          <leafValues>
            -3.6950460076332092e-001 5.0392502546310425e-001</leafValues></_>
        <_>
          <internalNodes>
            0 -1 19 117220095 -1631054539 -936885025 1610416185
            294165439 1018447988 2076790778 194275796</internalNodes>
          <leafValues>
            -5.6028109788894653e-001 3.1855538487434387e-001</leafValues></_>
        <_>
          <internalNodes>
            0 -1 90 -16803776 1901396038 -1022651521 -77907684
            -1421987642 -91307739 1165693374 -1287692578</internalNodes>
          <leafValues>
            -4.5358878374099731e-001 3.8929069042205811e-001</leafValues></_></weakClassifiers></_>
    <!-- stage 12 -->
    <_>
      <maxWeakCount>11</maxWeakCount>
      <stageThreshold>-1.4330135583877563e+000</stageThreshold>
      <weakClassifiers>
        <_>
          <internalNodes>
            0 -1 45 -269027841 -1881372682 -1651245603 -1109593092
            -1398091041 -1883381039 363855295 -570426885</internalNodes>
          <leafValues>
            -5.9807193279266357e-001 3.6939984560012817e-001</leafValues></_>
        <_>
          <internalNodes>
            0 -1 117 -110116273 -1595561 -1077968961 1965031259
            -1088454661 -16777233 -1 -536687009</internalNodes>
          <leafValues>
            -4.3426433205604553e-001 4.5313763618469238e-001</leafValues></_>
        <_>
          <internalNodes>
            0 -1 85 -52432720 1836905366 355291292 -1693459547
            -543180566 -1883586133 503042088 523222875</internalNodes>
          <leafValues>
            -5.6565076112747192e-001 2.9328796267509460e-001</leafValues></_>
        <_>
          <internalNodes>
            0 -1 72 -1342890723 -107259943 -185860481 -736929329
            -52479184 -27770311 -274326808 -12866055</internalNodes>
          <leafValues>
            -4.3217369914054871e-001 3.7978023290634155e-001</leafValues></_>
        <_>
          <internalNodes>
            0 -1 94 -776978348 -539421702 608369051 -48411381
            -1729767267 -612186469 -877100033 -1440068050</internalNodes>
          <leafValues>
            -4.0490713715553284e-001 4.3163812160491943e-001</leafValues></_>
        <_>
          <internalNodes>
            0 -1 35 -765462478 -608885999 1394073557 1903261084
            -1474199416 -664206464 540383738 827532091</internalNodes>
          <leafValues>
            -5.3793549537658691e-001 2.9456067085266113e-001</leafValues></_>
        <_>
          <internalNodes>
            0 -1 56 912267636 939393996 430136349 2147037885 -1625498119
            -1616625159 194648571 -1359995764</internalNodes>
          <leafValues>
            -5.4179191589355469e-001 3.4238556027412415e-001</leafValues></_>
        <_>
          <internalNodes>
            0 -1 55 -263879679 -1078494231 2105359187 -115360777
            -1208123395 -33726467 -176687240 -1059478945</internalNodes>
          <leafValues>
            -4.1239291429519653e-001 4.5521387457847595e-001</leafValues></_>
        <_>
          <internalNodes>
            0 -1 68 -406083902 -517486586 -613584000 -941602619
            553889961 1078690140 92771733 1095731058</internalNodes>
          <leafValues>
            -5.3859275579452515e-001 3.3684611320495605e-001</leafValues></_>
        <_>
          <internalNodes>
            0 -1 107 -1815175166 -2070175533 -251439777 -980967865
            2064380113 28153012 1512419741 1474808730</internalNodes>
          <leafValues>
            -6.0754704475402832e-001 2.5762215256690979e-001</leafValues></_>
        <_>
          <internalNodes>
            0 -1 60 -1676676784 1361203344 294114395 -1280817050
            -896750596 172139200 312954939 27902665</internalNodes>
          <leafValues>
            -6.1235052347183228e-001 2.8406137228012085e-001</leafValues></_></weakClassifiers></_>
    <!-- stage 13 -->
    <_>
      <maxWeakCount>10</maxWeakCount>
      <stageThreshold>-1.5670349597930908e+000</stageThreshold>
      <weakClassifiers>
        <_>
          <internalNodes>
            0 -1 115 -524293 -1970809954 -1984695047 -4981769 -630195521
            -1883385782 400282865 -536880689</internalNodes>
          <leafValues>
            -5.7929277420043945e-001 3.6323657631874084e-001</leafValues></_>
        <_>
          <internalNodes>
            0 -1 21 -567329 -541895899 1405088255 296974079 -646306940
            -1645322212 -83199492 -1146423305</internalNodes>
          <leafValues>
            -4.4305339455604553e-001 4.4323301315307617e-001</leafValues></_>
        <_>
          <internalNodes>
            0 -1 104 -220759460 -1149509761 -1205010469 1082128026
            -355500280 1868465167 -354615350 1929109050</internalNodes>
          <leafValues>
            -5.6117290258407593e-001 3.1004756689071655e-001</leafValues></_>
        <_>
          <internalNodes>
            0 -1 69 -29360579 -683821517 -352322817 -202129697
            -315151363 2134867836 -402653697 -177209345</internalNodes>
          <leafValues>
            -3.2028615474700928e-001 5.4623502492904663e-001</leafValues></_>
        <_>
          <internalNodes>
            0 -1 28 374533252 1070982360 360870396 -1179661905
            -1817462886 -555786113 1288565292 -2086227456</internalNodes>
          <leafValues>
            -5.1825863122940063e-001 3.5004365444183350e-001</leafValues></_>
        <_>
          <internalNodes>
            0 -1 11 2127850239 -155737252 -1555125893 -1170999910
            1689736063 -78705899 -8307105 2138533703</internalNodes>
          <leafValues>
            -5.5135577917098999e-001 2.7827608585357666e-001</leafValues></_>
        <_>
          <internalNodes>
            0 -1 120 -1084285957 -1358241555 -256040639 -1075560622
            -1412582432 -2085707541 -755383056 -677644290</internalNodes>
          <leafValues>
            -3.9150920510292053e-001 4.1854992508888245e-001</leafValues></_>
        <_>
          <internalNodes>
            0 -1 25 1504391936 2131955139 353817948 -549492855 -49688440
            -1077593968 939556296 722188987</internalNodes>
          <leafValues>
            -5.2343028783798218e-001 3.2183182239532471e-001</leafValues></_>
        <_>
          <internalNodes>
            0 -1 67 -232337722 -591347552 46520528 1090830466 37906599
            -22648152 84248509 1462191597</internalNodes>
          <leafValues>
            -5.4607254266738892e-001 3.1459885835647583e-001</leafValues></_>
        <_>
          <internalNodes>
            0 -1 20 1446964344 -765269134 1270875360 1208114760
            1114849496 -267301917 467066479 -11052374</internalNodes>
          <leafValues>
            -5.3815734386444092e-001 3.2107394933700562e-001</leafValues></_></weakClassifiers></_>
    <!-- stage 14 -->
    <_>
      <maxWeakCount>11</maxWeakCount>
      <stageThreshold>-1.5607552528381348e+000</stageThreshold>
      <weakClassifiers>
        <_>
          <internalNodes>
            0 -1 111 -2623489 -1973625889 -75377187 -1075922701
            -71975681 -1895896417 -71835649 -541067265</internalNodes>
          <leafValues>
            -5.9526538848876953e-001 3.0372720956802368e-001</leafValues></_>
        <_>
          <internalNodes>
            0 -1 43 -13109261 -1342259201 -1539 -537219089 -1090718721
            -1947402242 368415997 -536871425</internalNodes>
          <leafValues>
            -3.2819250226020813e-001 5.6462472677230835e-001</leafValues></_>
        <_>
          <internalNodes>
            0 -1 112 -704685987 -71603844 375127807 1914273663
            -203539928 -129 -958730547 -1170550790</internalNodes>
          <leafValues>
            -3.7911912798881531e-001 4.2479604482650757e-001</leafValues></_>
        <_>
          <internalNodes>
            0 -1 7 -69206401 -262446001 -696561557 -1819092390
            -228628456 270684223 2071297912 1468003289</internalNodes>
          <leafValues>
            -4.7192513942718506e-001 3.4527805447578430e-001</leafValues></_>
        <_>
          <internalNodes>
            0 -1 47 170131836 -1344379945 -1795153923 -1113059744
            -1949928457 -2003140100 432845531 -1918178168</internalNodes>
          <leafValues>
            -5.1374518871307373e-001 3.6414819955825806e-001</leafValues></_>
        <_>
          <internalNodes>
            0 -1 118 -891324405 -677518526 -1991653928 1178744079
            -1549918042 -588569883 1919011231 1918630294</internalNodes>
          <leafValues>
            -4.9529114365577698e-001 3.2392305135726929e-001</leafValues></_>
        <_>
          <internalNodes>
            0 -1 58 -180555265 -1255391168 -1317209737 -5769642
            -445665378 -1045720851 -2090206469 -845417785</internalNodes>
          <leafValues>
            -2.9248294234275818e-001 5.6352180242538452e-001</leafValues></_>
        <_>
          <internalNodes>
            0 -1 31 707819517 -1083963436 1476443387 1044520378
            449199099 -1347075904 -1281770051 514990250</internalNodes>
          <leafValues>
            -5.4108858108520508e-001 3.2009929418563843e-001</leafValues></_>
        <_>
          <internalNodes>
            0 -1 65 -411313092 2065026813 571576976 1850964411
            2115844925 1899498841 -1106270679 -293812515</internalNodes>
          <leafValues>
            -4.4049257040023804e-001 3.7686863541603088e-001</leafValues></_>
        <_>
          <internalNodes>
            0 -1 14 -285242835 -8564553 -352605459 -253677829 -145264928
            -277399691 -1090572546 -145231876</internalNodes>
          <leafValues>
            -3.4605810046195984e-001 4.8321548104286194e-001</leafValues></_>
        <_>
          <internalNodes>
            0 -1 75 -592222079 -3177505 -762096675 1455485263 2131492894
            -1467432142 -978364306 -1999743269</internalNodes>
          <leafValues>
            -4.7206112742424011e-001 3.5659176111221313e-001</leafValues></_></weakClassifiers></_></stages>
  <features>
    <_>
      <rect>
        0 0 14 5</rect></_>
    <_>
      <rect>
        0 11 3 2</rect></_>
    <_>
      <rect>
        0 11 6 3</rect></_>
    <_>
      <rect>
        0 12 2 3</rect></_>
    <_>
      <rect>
        0 14 2 2</rect></_>
    <_>
      <rect>
        0 15 2 2</rect></_>
    <_>
      <rect>
        0 15 5 3</rect></_>
    <_>
      <rect>
        0 16 2 2</rect></_>
    <_>
      <rect>
        0 16 3 3</rect></_>
    <_>
      <rect>
        0 19 3 2</rect></_>
    <_>
      <rect>
        0 21 3 1</rect></_>
    <_>
      <rect>
        0 22 4 1</rect></_>
    <_>
      <rect>
        1 16 2 3</rect></_>
    <_>
      <rect>
        1 18 2 2</rect></_>
    <_>
      <rect>
        1 20 2 1</rect></_>
    <_>
      <rect>
        1 20 4 1</rect></_>
    <_>
      <rect>
        1 21 2 1</rect></_>
    <_>
      <rect>
        1 21 3 1</rect></_>
    <_>
      <rect>
        1 22 3 1</rect></_>
    <_>
      <rect>
        2 16 10 3</rect></_>
    <_>
      <rect>
        3 16 2 2</rect></_>
    <_>
      <rect>
        3 19 1 2</rect></_>
    <_>
      <rect>
        3 19 15 2</rect></_>
    <_>
      <rect>
        3 21 3 1</rect></_>
    <_>
      <rect>
        4 0 10 5</rect></_>
    <_>
      <rect>
        4 11 4 2</rect></_>
    <_>
      <rect>
        4 20 1 1</rect></_>
    <_>
      <rect>
        4 21 2 1</rect></_>
    <_>
      <rect>
        5 0 12 4</rect></_>
    <_>
      <rect>
        5 1 15 6</rect></_>
    <_>
      <rect>
        5 19 4 2</rect></_>
    <_>
      <rect>
        5 22 2 1</rect></_>
    <_>
      <rect>
        6 4 11 7</rect></_>
    <_>
      <rect>
        6 9 5 5</rect></_>
    <_>
      <rect>
        6 21 6 1</rect></_>
    <_>
      <rect>
        7 10 4 2</rect></_>
    <_>
      <rect>
        8 9 7 3</rect></_>
    <_>
      <rect>
        8 20 7 1</rect></_>
    <_>
      <rect>
        8 22 2 1</rect></_>
    <_>
      <rect>
        8 22 4 1</rect></_>
    <_>
      <rect>
        8 22 8 1</rect></_>
    <_>
      <rect>
        9 19 13 2</rect></_>
    <_>
      <rect>
        10 20 2 1</rect></_>
    <_>
      <rect>
        10 21 2 1</rect></_>
    <_>
      <rect>
        11 2 13 3</rect></_>
    <_>
      <rect>
        11 21 2 1</rect></_>
    <_>
      <rect>
        12 22 4 1</rect></_>
    <_>
      <rect>
        13 21 3 1</rect></_>
    <_>
      <rect>
        14 2 12 6</rect></_>
    <_>
      <rect>
        15 22 6 1</rect></_>
    <_>
      <rect>
        16 22 3 1</rect></_>
    <_>
      <rect>
        19 0 7 5</rect></_>
    <_>
      <rect>
        19 20 3 1</rect></_>
    <_>
      <rect>
        19 22 8 1</rect></_>
    <_>
      <rect>
        20 9 10 5</rect></_>
    <_>
      <rect>
        22 0 9 3</rect></_>
    <_>
      <rect>
        22 20 2 1</rect></_>
    <_>
      <rect>
        25 20 2 1</rect></_>
    <_>
      <rect>
        26 9 6 2</rect></_>
    <_>
      <rect>
        26 22 2 1</rect></_>
    <_>
      <rect>
        27 7 6 3</rect></_>
    <_>
      <rect>
        27 10 6 2</rect></_>
    <_>
      <rect>
        28 19 6 2</rect></_>
    <_>
      <rect>
        31 10 4 2</rect></_>
    <_>
      <rect>
        31 12 3 2</rect></_>
    <_>
      <rect>
        31 18 3 2</rect></_>
    <_>
      <rect>
        32 5 5 4</rect></_>
    <_>
      <rect>
        32 11 4 2</rect></_>
    <_>
      <rect>
        32 13 2 2</rect></_>
    <_>
      <rect>
        32 20 3 1</rect></_>
    <_>
      <rect>
        32 21 2 1</rect></_>
    <_>
      <rect>
        33 6 4 4</rect></_>
    <_>
      <rect>
        33 21 2 1</rect></_>
    <_>
      <rect>
        34 18 4 2</rect></_>
    <_>
      <rect>
        34 21 2 1</rect></_>
    <_>
      <rect>
        35 1 5 7</rect></_>
    <_>
      <rect>
        35 16 5 3</rect></_>
    <_>
      <rect>
        35 17 2 2</rect></_>
    <_>
      <rect>
        35 21 2 1</rect></_>
    <_>
      <rect>
        35 22 2 1</rect></_>
    <_>
      <rect>
        37 22 2 1</rect></_>
    <_>
      <rect>
        38 14 4 2</rect></_>
    <_>
      <rect>
        38 22 4 1</rect></_>
    <_>
      <rect>
        39 20 3 1</rect></_>
    <_>
      <rect>
        40 5 3 5</rect></_>
    <_>
      <rect>
        40 18 3 2</rect></_>
    <_>
      <rect>
        40 19 3 2</rect></_>
    <_>
      <rect>
        41 16 3 3</rect></_>
    <_>
      <rect>
        41 21 3 1</rect></_>
    <_>
      <rect>
        41 22 3 1</rect></_>
    <_>
      <rect>
        42 12 2 2</rect></_>
    <_>
      <rect>
        42 12 2 3</rect></_>
    <_>
      <rect>
        42 21 1 1</rect></_>
    <_>
      <rect>
        42 21 2 1</rect></_>
    <_>
      <rect>
        43 11 1 1</rect></_>
    <_>
      <rect>
        43 13 2 1</rect></_>
    <_>
      <rect>
        43 15 2 2</rect></_>
    <_>
      <rect>
        43 19 2 1</rect></_>
    <_>
      <rect>
        43 19 2 2</rect></_>
    <_>
      <rect>
        43 20 1 1</rect></_>
    <_>
      <rect>
        43 20 2 1</rect></_>
    <_>
      <rect>
        43 21 2 1</rect></_>
    <_>
      <rect>
        43 22 2 1</rect></_>
    <_>
      <rect>
        44 11 2 3</rect></_>
    <_>
      <rect>
        44 13 2 1</rect></_>
    <_>
      <rect>
        44 13 2 4</rect></_>
    <_>
      <rect>
        44 14 2 2</rect></_>
    <_>
      <rect>
        44 14 2 3</rect></_>
    <_>
      <rect>
        44 18 2 2</rect></_>
    <_>
      <rect>
        44 19 2 2</rect></_>
    <_>
      <rect>
        44 21 1 1</rect></_>
    <_>
      <rect>
        44 22 2 1</rect></_>
    <_>
      <rect>
        45 13 1 1</rect></_>
    <_>
      <rect>
        45 13 1 2</rect></_>
    <_>
      <rect>
        45 15 1 1</rect></_>
    <_>
      <rect>
        45 20 1 1</rect></_>
    <_>
      <rect>
        46 8 1 4</rect></_>
    <_>
      <rect>
        46 11 1 3</rect></_>
    <_>
      <rect>
        46 14 1 2</rect></_>
    <_>
      <rect>
        46 17 1 2</rect></_>
    <_>
      <rect>
        46 19 1 1</rect></_>
    <_>
      <rect>
        47 16 1 1</rect></_>
    <_>
      <rect>
        47 19 1 2</rect></_>
    <_>
      <rect>
        47 20 1 1</rect></_></features></cascade>
</opencv_storage>
