<?xml version="1.0"?>
<opencv_storage>
<cascade>
  <stageType>BOOST</stageType>
  <featureType>LBP</featureType>
  <height>35</height>
  <width>70</width>
  <stageParams>
    <boostType>GAB</boostType>
    <minHitRate>9.9900001287460327e-01</minHitRate>
    <maxFalseAlarm>5.0000000000000000e-01</maxFalseAlarm>
    <weightTrimRate>9.4999999999999996e-01</weightTrimRate>
    <maxDepth>1</maxDepth>
    <maxWeakCount>100</maxWeakCount></stageParams>
  <featureParams>
    <maxCatCount>256</maxCatCount>
    <featSize>1</featSize></featureParams>
  <stageNum>15</stageNum>
  <stages>
    <!-- stage 0 -->
    <_>
      <maxWeakCount>5</maxWeakCount>
      <stageThreshold>-9.2343193292617798e-01</stageThreshold>
      <weakClassifiers>
        <_>
          <internalNodes>
            0 -1 20 708969215 1026687363 823301471 -1621748741 58756090
            -1883631417 -1744073733 -1680204613</internalNodes>
          <leafValues>
            -7.7268385887145996e-01 4.0254238247871399e-01</leafValues></_>
        <_>
          <internalNodes>
            0 -1 80 -203471753 2030262338 1124195799 -1223208741
            -720839774 -14515684 1879757547 -231021830</internalNodes>
          <leafValues>
            -5.7626771926879883e-01 6.2635010480880737e-01</leafValues></_>
        <_>
          <internalNodes>
            0 -1 77 -261207429 1380123795 -805173281 1882288387
            151725642 -100458213 -1304268258 -130364664</internalNodes>
          <leafValues>
            -6.4672434329986572e-01 5.5038040876388550e-01</leafValues></_>
        <_>
          <internalNodes>
            0 -1 26 109510869 -1320025190 -1794960963 -1635344230
            -1718607109 -1414928228 1921149882 -1077528087</internalNodes>
          <leafValues>
            -6.4625370502471924e-01 5.8174818754196167e-01</leafValues></_>
        <_>
          <internalNodes>
            0 -1 50 981211925 -91160559 -1073377065 -752197607
            -778669296 -634896307 -687839042 -1115801397</internalNodes>
          <leafValues>
            -6.5383321046829224e-01 5.5631464719772339e-01</leafValues></_></weakClassifiers></_>
    <!-- stage 1 -->
    <_>
      <maxWeakCount>5</maxWeakCount>
      <stageThreshold>-8.4493023157119751e-01</stageThreshold>
      <weakClassifiers>
        <_>
          <internalNodes>
            0 -1 70 -1160251425 -48856192 1090602437 -581713659
            -2136240929 -1622441976 148984265 -537930277</internalNodes>
          <leafValues>
            -6.9591659307479858e-01 4.9456521868705750e-01</leafValues></_>
        <_>
          <internalNodes>
            0 -1 31 -48766465 869060738 1342279899 -604779161
            -2088003900 -1952407296 1076003227 287831518</internalNodes>
          <leafValues>
            -6.2022942304611206e-01 5.1747614145278931e-01</leafValues></_>
        <_>
          <internalNodes>
            0 -1 4 -171724430 -78507578 285675856 -708767424 318988963
            -1147076470 1132611643 -76078622</internalNodes>
          <leafValues>
            -6.5604287385940552e-01 4.8802527785301208e-01</leafValues></_>
        <_>
          <internalNodes>
            0 -1 47 -84411469 -783222279 788369133 1348619746 -607138630
            -621805610 -1696608610 -607137826</internalNodes>
          <leafValues>
            -4.6549141407012939e-01 7.0222574472427368e-01</leafValues></_>
        <_>
          <internalNodes>
            0 -1 21 240593405 547009779 356774359 -1357008485 193671421
            -1915123291 1233132287 481814713</internalNodes>
          <leafValues>
            -6.8902361392974854e-01 5.0106614828109741e-01</leafValues></_></weakClassifiers></_>
    <!-- stage 2 -->
    <_>
      <maxWeakCount>5</maxWeakCount>
      <stageThreshold>-1.3076820373535156e+00</stageThreshold>
      <weakClassifiers>
        <_>
          <internalNodes>
            0 -1 6 -552901121 -145256229 362339135 -80527353 -234866374
            -65928923 -886817905 -76188325</internalNodes>
          <leafValues>
            -7.2752547264099121e-01 3.7727272510528564e-01</leafValues></_>
        <_>
          <internalNodes>
            0 -1 25 -800206648 -69680753 -918547243 -1245745068
            -133453126 -97941358 1489371896 1218202772</internalNodes>
          <leafValues>
            -8.0211591720581055e-01 3.4898072481155396e-01</leafValues></_>
        <_>
          <internalNodes>
            0 -1 52 852499825 -38723106 403757405 1025118355 538131218
            -108330951 1401432313 991124426</internalNodes>
          <leafValues>
            -7.5340133905410767e-01 4.2112061381340027e-01</leafValues></_>
        <_>
          <internalNodes>
            0 -1 56 -713238444 517083869 -619622147 1565725659 -91510593
            -1970658664 134924476 413637547</internalNodes>
          <leafValues>
            -6.4743238687515259e-01 4.8519244790077209e-01</leafValues></_>
        <_>
          <internalNodes>
            0 -1 54 -750003160 -1925980080 1191219344 764522950
            -1048448636 403308748 -402446168 -807678294</internalNodes>
          <leafValues>
            -6.3310176134109497e-01 5.4412090778350830e-01</leafValues></_></weakClassifiers></_>
    <!-- stage 3 -->
    <_>
      <maxWeakCount>5</maxWeakCount>
      <stageThreshold>-1.4193637371063232e+00</stageThreshold>
      <weakClassifiers>
        <_>
          <internalNodes>
            0 -1 44 -173015557 2030293410 293818571 -710688509
            1611393711 998933201 1361834735 1472189231</internalNodes>
          <leafValues>
            -7.0138251781463623e-01 3.2718893885612488e-01</leafValues></_>
        <_>
          <internalNodes>
            0 -1 30 388178196 520491277 51380445 -1223610343 -2105431635
            -72646624 424159660 -1616346386</internalNodes>
          <leafValues>
            -6.8202048540115356e-01 4.3240663409233093e-01</leafValues></_>
        <_>
          <internalNodes>
            0 -1 10 2119308282 -614575997 1112554442 -587115758
            495006445 -1165813752 1278034875 2104587795</internalNodes>
          <leafValues>
            -7.5445282459259033e-01 3.9926287531852722e-01</leafValues></_>
        <_>
          <internalNodes>
            0 -1 74 -538988464 -686784112 268595283 395280927
            -2118467196 449835293 354605485 2113926135</internalNodes>
          <leafValues>
            -6.7305040359497070e-01 4.6048167347908020e-01</leafValues></_>
        <_>
          <internalNodes>
            0 -1 1 -66395934 -543579682 285515063 -1953300479 35832000
            -1391853564 1208090704 1496797555</internalNodes>
          <leafValues>
            -7.9074460268020630e-01 4.2168599367141724e-01</leafValues></_></weakClassifiers></_>
    <!-- stage 4 -->
    <_>
      <maxWeakCount>5</maxWeakCount>
      <stageThreshold>-9.2520135641098022e-01</stageThreshold>
      <weakClassifiers>
        <_>
          <internalNodes>
            0 -1 82 -1075855361 -1585274554 983538327 -1254650021
            862700939 -1417002613 426463435 -67117073</internalNodes>
          <leafValues>
            -6.8738901615142822e-01 3.9440202713012695e-01</leafValues></_>
        <_>
          <internalNodes>
            0 -1 13 1572818683 -1147145 -1627750401 -1821335581
            1333735285 -293830785 -81921 -8454282</internalNodes>
          <leafValues>
            -5.3279757499694824e-01 5.4269063472747803e-01</leafValues></_>
        <_>
          <internalNodes>
            0 -1 15 -128191495 836026673 17559957 1036376255 -1198863190
            1804276878 1883295963 82835126</internalNodes>
          <leafValues>
            -6.0202670097351074e-01 4.7448381781578064e-01</leafValues></_>
        <_>
          <internalNodes>
            0 -1 8 651046481 -1369515778 -850306145 -1349455541
            146604609 2085776191 -1053880011 -78480549</internalNodes>
          <leafValues>
            -7.0708692073822021e-01 4.1389665007591248e-01</leafValues></_>
        <_>
          <internalNodes>
            0 -1 41 1974982355 -1836873472 339755283 341957696
            -499331006 671744010 688251883 1374156367</internalNodes>
          <leafValues>
            -5.4789990186691284e-01 5.4853487014770508e-01</leafValues></_></weakClassifiers></_>
    <!-- stage 5 -->
    <_>
      <maxWeakCount>5</maxWeakCount>
      <stageThreshold>-1.0709344148635864e+00</stageThreshold>
      <weakClassifiers>
        <_>
          <internalNodes>
            0 -1 71 -69209121 -1214918200 -919805479 -104215077
            -1463044865 -1545956662 455073017 -542114369</internalNodes>
          <leafValues>
            -6.2096774578094482e-01 5.4121863842010498e-01</leafValues></_>
        <_>
          <internalNodes>
            0 -1 11 822868312 362418321 -505998370 -1214803882 680126633
            -1702258560 -636908821 -1612967288</internalNodes>
          <leafValues>
            -6.3322174549102783e-01 4.2896625399589539e-01</leafValues></_>
        <_>
          <internalNodes>
            0 -1 2 -1037633049 -116973502 -1845247655 -680316333
            43156657 1359169936 1705267921 1160992087</internalNodes>
          <leafValues>
            -6.7370045185089111e-01 4.0720665454864502e-01</leafValues></_>
        <_>
          <internalNodes>
            0 -1 32 196347132 829037786 -1794953057 98065407 306761215
            -1207252856 965253885 -1965084648</internalNodes>
          <leafValues>
            -7.1490132808685303e-01 4.1960701346397400e-01</leafValues></_>
        <_>
          <internalNodes>
            0 -1 75 -404576002 -1291738942 287199516 428163591
            -1111406419 403210432 143343804 -541078821</internalNodes>
          <leafValues>
            -5.7123827934265137e-01 5.3498983383178711e-01</leafValues></_></weakClassifiers></_>
    <!-- stage 6 -->
    <_>
      <maxWeakCount>5</maxWeakCount>
      <stageThreshold>-1.0945382118225098e+00</stageThreshold>
      <weakClassifiers>
        <_>
          <internalNodes>
            0 -1 38 -715982081 -104803812 268534263 -686079967
            -1877747541 -1732060949 1116189867 -1101685</internalNodes>
          <leafValues>
            -6.4256024360656738e-01 4.8734176158905029e-01</leafValues></_>
        <_>
          <internalNodes>
            0 -1 68 -242237438 -111987705 84252111 1258936730 1076031744
            1378066451 1162074284 1467460431</internalNodes>
          <leafValues>
            -7.1958404779434204e-01 3.7828508019447327e-01</leafValues></_>
        <_>
          <internalNodes>
            0 -1 60 -1075718760 235378078 1090684369 -44152740 304193980
            -1954162296 -1802342243 -1650744401</internalNodes>
          <leafValues>
            -5.7942152023315430e-01 4.7220468521118164e-01</leafValues></_>
        <_>
          <internalNodes>
            0 -1 18 -132598704 -1252195305 -649591429 968907101
            -1858889560 -1186922235 142658729 960586671</internalNodes>
          <leafValues>
            -6.4133983850479126e-01 4.4730600714683533e-01</leafValues></_>
        <_>
          <internalNodes>
            0 -1 16 1081271792 1566048633 270553563 -1789849445
            555987164 -928972664 8393611 98763345</internalNodes>
          <leafValues>
            -6.5190458297729492e-01 4.5559737086296082e-01</leafValues></_></weakClassifiers></_>
    <!-- stage 7 -->
    <_>
      <maxWeakCount>6</maxWeakCount>
      <stageThreshold>-8.8836193084716797e-01</stageThreshold>
      <weakClassifiers>
        <_>
          <internalNodes>
            0 -1 27 1040650717 -37809707 1092094303 -1218633585
            -503211601 -1093072500 195603195 -1614935844</internalNodes>
          <leafValues>
            -7.0370370149612427e-01 2.6180258393287659e-01</leafValues></_>
        <_>
          <internalNodes>
            0 -1 63 2121650963 -552806570 -578559971 1885064027
            -359684093 1380222976 1238940607 1112246834</internalNodes>
          <leafValues>
            -7.0278024673461914e-01 3.5999822616577148e-01</leafValues></_>
        <_>
          <internalNodes>
            0 -1 5 -151058307 1927233627 -1760312423 -1323642210
            -297575108 561725705 2014412589 1901554559</internalNodes>
          <leafValues>
            -7.0472675561904907e-01 3.7926116585731506e-01</leafValues></_>
        <_>
          <internalNodes>
            0 -1 46 -607125753 -909145850 -2147405294 -242630527
            319348872 -2146959064 1142153473 1624210786</internalNodes>
          <leafValues>
            -5.9762197732925415e-01 5.0285142660140991e-01</leafValues></_>
        <_>
          <internalNodes>
            0 -1 55 1553471060 -203799844 85475463 1880123538 949594296
            -350158716 -768063333 -1089862486</internalNodes>
          <leafValues>
            -6.2475287914276123e-01 4.8506546020507813e-01</leafValues></_>
        <_>
          <internalNodes>
            0 -1 48 -37008146 -532286739 638633994 1912783307 -766813686
            1107955726 -385815287 1129575047</internalNodes>
          <leafValues>
            -6.6704905033111572e-01 4.7689780592918396e-01</leafValues></_></weakClassifiers></_>
    <!-- stage 8 -->
    <_>
      <maxWeakCount>6</maxWeakCount>
      <stageThreshold>-1.0536687374114990e+00</stageThreshold>
      <weakClassifiers>
        <_>
          <internalNodes>
            0 -1 58 -178825352 1031972189 -1727535619 1066508283
            -114759447 -1473539861 -1132422920 -1934901073</internalNodes>
          <leafValues>
            -7.2344690561294556e-01 1.9769673049449921e-01</leafValues></_>
        <_>
          <internalNodes>
            0 -1 28 119153269 -677665541 176593855 -1080094702
            -1886463041 -72732466 -105314113 1069038056</internalNodes>
          <leafValues>
            -6.5753901004791260e-01 3.6589914560317993e-01</leafValues></_>
        <_>
          <internalNodes>
            0 -1 14 -857923122 -82208609 -2130434226 -1114655713
            -1710494977 -1147421765 -68363812 76082410</internalNodes>
          <leafValues>
            -7.0321321487426758e-01 3.7149077653884888e-01</leafValues></_>
        <_>
          <internalNodes>
            0 -1 22 1287693000 134911396 -1324711492 794733416
            -1451003652 -1936186742 2021723134 1970725597</internalNodes>
          <leafValues>
            -8.1538093090057373e-01 3.0969944596290588e-01</leafValues></_>
        <_>
          <internalNodes>
            0 -1 42 -2128608679 2101162829 -1995331297 -560525039
            1925712417 -81651701 -1148640707 -80805520</internalNodes>
          <leafValues>
            -6.1273539066314697e-01 4.9223300814628601e-01</leafValues></_>
        <_>
          <internalNodes>
            0 -1 67 -615310643 -1222792543 -246202223 1342854906
            -226181576 941211690 -1065305698 -1741885573</internalNodes>
          <leafValues>
            -5.6063902378082275e-01 5.2091199159622192e-01</leafValues></_></weakClassifiers></_>
    <!-- stage 9 -->
    <_>
      <maxWeakCount>5</maxWeakCount>
      <stageThreshold>-1.1834746599197388e+00</stageThreshold>
      <weakClassifiers>
        <_>
          <internalNodes>
            0 -1 66 2118901747 -1178679778 -645694991 -571106081
            -609492085 -1884643157 -255384080 -603981093</internalNodes>
          <leafValues>
            -6.5714287757873535e-01 3.8461539149284363e-01</leafValues></_>
        <_>
          <internalNodes>
            0 -1 35 571999769 655880691 453331419 -1611136098
            -1114594463 -1076124165 -1096206677 -1908659298</internalNodes>
          <leafValues>
            -6.8428802490234375e-01 3.5158351063728333e-01</leafValues></_>
        <_>
          <internalNodes>
            0 -1 0 -174915743 1124515668 1631700434 -1828418698
            -1693652757 -74948607 -947657458 1364287780</internalNodes>
          <leafValues>
            -6.9458603858947754e-01 3.8272160291671753e-01</leafValues></_>
        <_>
          <internalNodes>
            0 -1 65 -631607647 -1383161170 -45509167 -38823713 -90979143
            176868047 -2090634816 -1781599841</internalNodes>
          <leafValues>
            -5.8614903688430786e-01 4.5772159099578857e-01</leafValues></_>
        <_>
          <internalNodes>
            0 -1 61 2088505424 -117321318 1929892319 -95387047
            -1744772997 -192380791 -618622019 -1146082944</internalNodes>
          <leafValues>
            -6.3893854618072510e-01 4.5629277825355530e-01</leafValues></_></weakClassifiers></_>
    <!-- stage 10 -->
    <_>
      <maxWeakCount>6</maxWeakCount>
      <stageThreshold>-7.8526067733764648e-01</stageThreshold>
      <weakClassifiers>
        <_>
          <internalNodes>
            0 -1 49 -220268353 -617932065 -1056138117 1932785817
            -796669051 1577411891 -341078901 -75760741</internalNodes>
          <leafValues>
            -6.3131314516067505e-01 3.9577040076255798e-01</leafValues></_>
        <_>
          <internalNodes>
            0 -1 34 -183773935 1095285988 1153713623 -708289193
            -1031174155 -1802993264 366445822 558844223</internalNodes>
          <leafValues>
            -6.5642052888870239e-01 3.4556230902671814e-01</leafValues></_>
        <_>
          <internalNodes>
            0 -1 72 -1356923586 -1681493852 1343341181 -135372539
            -1723870295 -1431658365 497762717 1602210028</internalNodes>
          <leafValues>
            -6.3897103071212769e-01 3.8183647394180298e-01</leafValues></_>
        <_>
          <internalNodes>
            0 -1 36 -1000740350 -217200813 -2147121674 1910424586
            -64250952 -46249585 -22429510 282179639</internalNodes>
          <leafValues>
            -6.7657685279846191e-01 3.9089629054069519e-01</leafValues></_>
        <_>
          <internalNodes>
            0 -1 53 -610649741 -1018627177 1095962647 -133787381
            -678424230 1753260667 -118264529 -921951722</internalNodes>
          <leafValues>
            -5.6096261739730835e-01 4.6986269950866699e-01</leafValues></_>
        <_>
          <internalNodes>
            0 -1 69 -880941646 -468672252 -259940182 288661656
            -1373157984 286203937 1528807716 1527760375</internalNodes>
          <leafValues>
            -6.7463219165802002e-01 4.0693503618240356e-01</leafValues></_></weakClassifiers></_>
    <!-- stage 11 -->
    <_>
      <maxWeakCount>5</maxWeakCount>
      <stageThreshold>-1.1540280580520630e+00</stageThreshold>
      <weakClassifiers>
        <_>
          <internalNodes>
            0 -1 81 -303568917 -1593274357 630444546 -1055399477
            -274078361 134391968 -224534397 -739509297</internalNodes>
          <leafValues>
            -6.9274806976318359e-01 2.2717621922492981e-01</leafValues></_>
        <_>
          <internalNodes>
            0 -1 9 -153160067 -67644679 9486426 -263959457 -675683265
            -31610023 -498266450 -182228097</internalNodes>
          <leafValues>
            -5.1224440336227417e-01 4.7155237197875977e-01</leafValues></_>
        <_>
          <internalNodes>
            0 -1 64 -1570720838 -1451166893 1435079123 2111499426
            -1987845633 -1968553805 -798899781 1441266558</internalNodes>
          <leafValues>
            -6.4070814847946167e-01 4.2154440283775330e-01</leafValues></_>
        <_>
          <internalNodes>
            0 -1 73 552163665 -1611934159 -1056104001 -537700975
            -615286785 -2575429 -736960522 -503169186</internalNodes>
          <leafValues>
            -6.0902309417724609e-01 4.2663356661796570e-01</leafValues></_>
        <_>
          <internalNodes>
            0 -1 24 186258751 -1571249838 830525853 797443269
            -1316232453 -1466388351 1363696525 -1090633074</internalNodes>
          <leafValues>
            -6.0302531719207764e-01 4.8608139157295227e-01</leafValues></_></weakClassifiers></_>
    <!-- stage 12 -->
    <_>
      <maxWeakCount>6</maxWeakCount>
      <stageThreshold>-9.7167009115219116e-01</stageThreshold>
      <weakClassifiers>
        <_>
          <internalNodes>
            0 -1 7 -152574209 -48764417 -1658924553 -1120369957
            -341871625 -119584674 -414454609 -9077145</internalNodes>
          <leafValues>
            -6.4385962486267090e-01 3.0343008041381836e-01</leafValues></_>
        <_>
          <internalNodes>
            0 -1 40 -611899627 -1084402753 -2087642240 -74036936
            -904975892 -1422977976 -1165031122 -49174</internalNodes>
          <leafValues>
            -5.4492515325546265e-01 4.2054685950279236e-01</leafValues></_>
        <_>
          <internalNodes>
            0 -1 78 1666601801 -715474161 -867697153 68396127 1586197508
            1620036892 1812412651 1383246838</internalNodes>
          <leafValues>
            -7.6306641101837158e-01 3.2261729240417480e-01</leafValues></_>
        <_>
          <internalNodes>
            0 -1 29 1903883650 1026626449 1359878428 790106436
            -376311138 -1668775749 208146600 -1347640424</internalNodes>
          <leafValues>
            -6.3009613752365112e-01 4.2435586452484131e-01</leafValues></_>
        <_>
          <internalNodes>
            0 -1 3 -540551209 63347110 -1849486038 -83529556 396607013
            102347011 352932912 -1216482041</internalNodes>
          <leafValues>
            -5.6229156255722046e-01 4.6260106563568115e-01</leafValues></_>
        <_>
          <internalNodes>
            0 -1 57 203316880 -1946009580 1082167609 -552434919
            -1518331709 -1088247315 161710520 522887240</internalNodes>
          <leafValues>
            -7.6508551836013794e-01 3.5099482536315918e-01</leafValues></_></weakClassifiers></_>
    <!-- stage 13 -->
    <_>
      <maxWeakCount>7</maxWeakCount>
      <stageThreshold>-1.2522234916687012e+00</stageThreshold>
      <weakClassifiers>
        <_>
          <internalNodes>
            0 -1 62 -241174159 -1113681002 -1680174635 -1252862755
            981793514 -1880716484 1287886297 -537924099</internalNodes>
          <leafValues>
            -6.5523463487625122e-01 2.6034063100814819e-01</leafValues></_>
        <_>
          <internalNodes>
            0 -1 43 2136770303 -749446711 289996889 61099094 -376995159
            -1073567592 -413838374 -892347685</internalNodes>
          <leafValues>
            -5.1863783597946167e-01 4.2946630716323853e-01</leafValues></_>
        <_>
          <internalNodes>
            0 -1 37 104859415 965103831 1624080603 -1914787490 -99402053
            -218333121 1632164857 -1930675048</internalNodes>
          <leafValues>
            -6.6677147150039673e-01 3.5181587934494019e-01</leafValues></_>
        <_>
          <internalNodes>
            0 -1 79 -611420135 2071089679 -330100513 404293897
            -1470574586 -30746608 329304824 -365765665</internalNodes>
          <leafValues>
            -5.2664679288864136e-01 4.8018437623977661e-01</leafValues></_>
        <_>
          <internalNodes>
            0 -1 39 -812673188 -567487584 -1606405654 1672922132
            621394862 24265859 1409667861 134206494</internalNodes>
          <leafValues>
            -7.4095052480697632e-01 3.8080137968063354e-01</leafValues></_>
        <_>
          <internalNodes>
            0 -1 59 -164645572 2032165656 -1820301227 -878398699
            495966391 -1937027069 50223524 991947962</internalNodes>
          <leafValues>
            -5.7673269510269165e-01 4.5839819312095642e-01</leafValues></_>
        <_>
          <internalNodes>
            0 -1 51 -233375235 -49655529 1099039077 1895875008
            1003560666 -163528445 -234290867 -611645198</internalNodes>
          <leafValues>
            -5.0824326276779175e-01 5.6822651624679565e-01</leafValues></_></weakClassifiers></_>
    <!-- stage 14 -->
    <_>
      <maxWeakCount>7</maxWeakCount>
      <stageThreshold>-1.2151515483856201e+00</stageThreshold>
      <weakClassifiers>
        <_>
          <internalNodes>
            0 -1 76 -20710401 -1107403925 -1860141955 -777006330
            -1349529957 -1646548725 294115823 -9489</internalNodes>
          <leafValues>
            -5.9362548589706421e-01 4.7727271914482117e-01</leafValues></_>
        <_>
          <internalNodes>
            0 -1 17 198079039 -7665201 -792476482 523919157 -758498571
            -894825850 -106387457 1060792298</internalNodes>
          <leafValues>
            -7.0013618469238281e-01 3.2095116376876831e-01</leafValues></_>
        <_>
          <internalNodes>
            0 -1 33 605326653 -1190133083 -1856517353 -1919366767
            503892717 -1430683405 -1094601523 -2000373460</internalNodes>
          <leafValues>
            -5.6114858388900757e-01 4.2033460736274719e-01</leafValues></_>
        <_>
          <internalNodes>
            0 -1 19 -1008870825 2000764337 5624791 992691775 -1994763095
            -1408937340 816355449 568810523</internalNodes>
          <leafValues>
            -5.6559240818023682e-01 4.2433714866638184e-01</leafValues></_>
        <_>
          <internalNodes>
            0 -1 45 -915176814 -1138425788 -1894657833 1918561367
            -1594211656 909967377 -1610501794 1344797371</internalNodes>
          <leafValues>
            -6.7809820175170898e-01 3.7348550558090210e-01</leafValues></_>
        <_>
          <internalNodes>
            0 -1 23 745325689 -142390951 -794767337 488432569 -536147480
            -275021637 -912536869 -1451228606</internalNodes>
          <leafValues>
            -5.9034645557403564e-01 4.4491985440254211e-01</leafValues></_>
        <_>
          <internalNodes>
            0 -1 12 -198720813 -1627373438 -803409475 -255751978
            -392167064 -115996548 -1584621354 -486065954</internalNodes>
          <leafValues>
            -5.1870429515838623e-01 5.4136741161346436e-01</leafValues></_></weakClassifiers></_></stages>
  <features>
    <_>
      <rect>
        0 2 11 10</rect></_>
    <_>
      <rect>
        0 14 7 3</rect></_>
    <_>
      <rect>
        0 17 4 3</rect></_>
    <_>
      <rect>
        0 19 3 2</rect></_>
    <_>
      <rect>
        0 20 8 5</rect></_>
    <_>
      <rect>
        0 24 4 3</rect></_>
    <_>
      <rect>
        0 29 5 2</rect></_>
    <_>
      <rect>
        0 29 6 2</rect></_>
    <_>
      <rect>
        0 32 4 1</rect></_>
    <_>
      <rect>
        2 28 3 1</rect></_>
    <_>
      <rect>
        2 28 6 2</rect></_>
    <_>
      <rect>
        3 0 18 7</rect></_>
    <_>
      <rect>
        4 28 3 1</rect></_>
    <_>
      <rect>
        6 30 2 1</rect></_>
    <_>
      <rect>
        7 0 21 9</rect></_>
    <_>
      <rect>
        7 10 11 6</rect></_>
    <_>
      <rect>
        7 26 8 2</rect></_>
    <_>
      <rect>
        7 29 2 2</rect></_>
    <_>
      <rect>
        8 13 5 2</rect></_>
    <_>
      <rect>
        8 15 7 3</rect></_>
    <_>
      <rect>
        8 29 10 2</rect></_>
    <_>
      <rect>
        11 32 4 1</rect></_>
    <_>
      <rect>
        12 17 17 5</rect></_>
    <_>
      <rect>
        17 8 4 4</rect></_>
    <_>
      <rect>
        17 32 3 1</rect></_>
    <_>
      <rect>
        19 2 14 6</rect></_>
    <_>
      <rect>
        19 32 3 1</rect></_>
    <_>
      <rect>
        20 32 4 1</rect></_>
    <_>
      <rect>
        21 32 4 1</rect></_>
    <_>
      <rect>
        25 23 7 3</rect></_>
    <_>
      <rect>
        29 29 11 2</rect></_>
    <_>
      <rect>
        30 5 11 8</rect></_>
    <_>
      <rect>
        31 28 5 2</rect></_>
    <_>
      <rect>
        34 30 5 1</rect></_>
    <_>
      <rect>
        35 9 8 4</rect></_>
    <_>
      <rect>
        36 32 3 1</rect></_>
    <_>
      <rect>
        39 1 8 4</rect></_>
    <_>
      <rect>
        40 31 2 1</rect></_>
    <_>
      <rect>
        41 14 7 3</rect></_>
    <_>
      <rect>
        41 16 6 3</rect></_>
    <_>
      <rect>
        42 29 4 2</rect></_>
    <_>
      <rect>
        43 9 5 8</rect></_>
    <_>
      <rect>
        43 32 7 1</rect></_>
    <_>
      <rect>
        44 8 7 6</rect></_>
    <_>
      <rect>
        44 15 4 4</rect></_>
    <_>
      <rect>
        44 27 5 2</rect></_>
    <_>
      <rect>
        45 18 3 3</rect></_>
    <_>
      <rect>
        46 8 6 5</rect></_>
    <_>
      <rect>
        49 23 2 2</rect></_>
    <_>
      <rect>
        49 26 2 2</rect></_>
    <_>
      <rect>
        49 31 2 1</rect></_>
    <_>
      <rect>
        52 10 4 4</rect></_>
    <_>
      <rect>
        52 32 3 1</rect></_>
    <_>
      <rect>
        53 7 5 7</rect></_>
    <_>
      <rect>
        54 20 5 4</rect></_>
    <_>
      <rect>
        54 29 2 1</rect></_>
    <_>
      <rect>
        55 29 5 2</rect></_>
    <_>
      <rect>
        56 30 3 1</rect></_>
    <_>
      <rect>
        56 31 4 1</rect></_>
    <_>
      <rect>
        57 27 3 2</rect></_>
    <_>
      <rect>
        58 30 3 1</rect></_>
    <_>
      <rect>
        60 16 1 1</rect></_>
    <_>
      <rect>
        60 31 2 1</rect></_>
    <_>
      <rect>
        61 17 3 3</rect></_>
    <_>
      <rect>
        61 27 3 2</rect></_>
    <_>
      <rect>
        61 29 2 1</rect></_>
    <_>
      <rect>
        61 30 2 1</rect></_>
    <_>
      <rect>
        62 18 2 1</rect></_>
    <_>
      <rect>
        62 20 2 3</rect></_>
    <_>
      <rect>
        62 23 2 3</rect></_>
    <_>
      <rect>
        62 26 2 3</rect></_>
    <_>
      <rect>
        62 28 2 2</rect></_>
    <_>
      <rect>
        62 29 2 2</rect></_>
    <_>
      <rect>
        63 11 2 5</rect></_>
    <_>
      <rect>
        63 21 2 4</rect></_>
    <_>
      <rect>
        63 23 2 4</rect></_>
    <_>
      <rect>
        63 26 2 3</rect></_>
    <_>
      <rect>
        64 15 2 3</rect></_>
    <_>
      <rect>
        64 18 2 3</rect></_>
    <_>
      <rect>
        64 19 1 1</rect></_>
    <_>
      <rect>
        65 19 1 2</rect></_>
    <_>
      <rect>
        65 26 1 1</rect></_>
    <_>
      <rect>
        66 26 1 3</rect></_></features></cascade>
</opencv_storage>
